Language model created by QuickLM on Mon Sep 14 09:57:06 EDT 2015
Copyright (c) 1996-2010 Carnegie Mellon University and Alexander I. Rudnicky

The model is in standard ARPA format, designed by Doug Paul while he was at MITRE.

The code that was used to produce this language model is available in Open Source.
Please visit http://www.speech.cs.cmu.edu/tools/ for more information

The (fixed) discount mass is 0.5. The backoffs are computed using the ratio method.
This model based on a corpus of 12 sentences and 19 words

\data\
ngram 1=19
ngram 2=33
ngram 3=35

\1-grams:
-1.0669 </s> -0.3010
-1.0669 <s> -0.2553
-1.8451 A -0.2948
-1.8451 ARE -0.2820
-1.8451 CAN -0.2820
-1.3680 COMPUTER -0.2268
-1.8451 DO -0.2820
-1.8451 DOWN -0.2621
-1.3680 HAL -0.2268
-1.8451 HAVE -0.2948
-1.8451 HELP -0.2948
-1.8451 ME -0.2621
-1.8451 MINUTE -0.2621
-1.8451 OKAY -0.2621
-1.8451 SHUT -0.2948
-1.8451 THERE -0.2621
-1.8451 UP -0.2621
-1.8451 WAKE -0.2948
-1.3680 YOU -0.2820

\2-grams:
-0.6812 <s> COMPUTER -0.0669
-0.6812 <s> HAL -0.0669
-1.0792 <s> OKAY 0.0000
-0.3010 A MINUTE 0.0000
-0.3010 ARE YOU -0.2218
-0.3010 CAN YOU -0.2218
-1.0792 COMPUTER </s> -0.3010
-1.0792 COMPUTER ARE 0.0000
-1.0792 COMPUTER CAN 0.0000
-1.0792 COMPUTER DO 0.0000
-1.0792 COMPUTER SHUT 0.0000
-1.0792 COMPUTER WAKE 0.0000
-0.3010 DO YOU -0.2218
-0.3010 DOWN </s> -0.3010
-1.0792 HAL </s> -0.3010
-1.0792 HAL ARE 0.0000
-1.0792 HAL CAN 0.0000
-1.0792 HAL DO 0.0000
-1.0792 HAL SHUT 0.0000
-1.0792 HAL WAKE 0.0000
-0.3010 HAVE A 0.0000
-0.3010 HELP ME 0.0000
-0.3010 ME </s> -0.3010
-0.3010 MINUTE </s> -0.3010
-0.6021 OKAY COMPUTER -0.2632
-0.6021 OKAY HAL -0.2632
-0.3010 SHUT DOWN 0.0000
-0.3010 THERE </s> -0.3010
-0.3010 UP </s> -0.3010
-0.3010 WAKE UP 0.0000
-0.7782 YOU HAVE 0.0000
-0.7782 YOU HELP 0.0000
-0.7782 YOU THERE 0.0000

\3-grams:
-1.0000 <s> COMPUTER ARE
-1.0000 <s> COMPUTER CAN
-1.0000 <s> COMPUTER DO
-1.0000 <s> COMPUTER SHUT
-1.0000 <s> COMPUTER WAKE
-1.0000 <s> HAL ARE
-1.0000 <s> HAL CAN
-1.0000 <s> HAL DO
-1.0000 <s> HAL SHUT
-1.0000 <s> HAL WAKE
-0.6021 <s> OKAY COMPUTER
-0.6021 <s> OKAY HAL
-0.3010 A MINUTE </s>
-0.3010 ARE YOU THERE
-0.3010 CAN YOU HELP
-0.3010 COMPUTER ARE YOU
-0.3010 COMPUTER CAN YOU
-0.3010 COMPUTER DO YOU
-0.3010 COMPUTER SHUT DOWN
-0.3010 COMPUTER WAKE UP
-0.3010 DO YOU HAVE
-0.3010 HAL ARE YOU
-0.3010 HAL CAN YOU
-0.3010 HAL DO YOU
-0.3010 HAL SHUT DOWN
-0.3010 HAL WAKE UP
-0.3010 HAVE A MINUTE
-0.3010 HELP ME </s>
-0.3010 OKAY COMPUTER </s>
-0.3010 OKAY HAL </s>
-0.3010 SHUT DOWN </s>
-0.3010 WAKE UP </s>
-0.3010 YOU HAVE A
-0.3010 YOU HELP ME
-0.3010 YOU THERE </s>

\end\
